function [Y,Xf,Af] = myNeuralNetworkFunction(X,~,~)
%MYNEURALNETWORKFUNCTION neural network simulation function.
%
% Generated by Neural Network Toolbox function genFunction, 26-Oct-2014 19:00:54.
% 
% [Y] = myNeuralNetworkFunction(X,~,~) takes these arguments:
% 
%   X = 1xTS cell, 1 inputs over TS timsteps
%   Each X{1,ts} = 12xQ matrix, input #1 at timestep ts.
% 
% and returns:
%   Y = 1xTS cell of 1 outputs over TS timesteps.
%   Each Y{1,ts} = 3xQ matrix, output #1 at timestep ts.
% 
% where Q is number of samples (or series) and TS is the number of timesteps.

%#ok<*RPMT0>

  % ===== NEURAL NETWORK CONSTANTS =====
  
  % Input 1
  x1_step1_xoffset = [-17;-12;-7.66232899391872;-16.3152801270353;-11.4639359208566;-9.64820030867713;-16.4145695437428;-9.22650502043621;-9.46096850725701;-13.5829892664356;-19.5262794416288;-7.88446482384904];
  x1_step1_gain = [0.0714285714285714;0.0769230769230769;0.090917755152671;0.064700792320107;0.0776441246050255;0.0714843066592946;0.0802360001857883;0.0919194824913748;0.0832630887696549;0.085712155651295;0.0675705718598474;0.084436037562232];
  x1_step1_ymin = -1;
  
  % Layer 1
  b1 = [-0.10175757706620103;-0.021176228924426697;0.092379535541778954;-0.064701759876760051;0.16029105833434809;0.15883132015045898;-0.077309821267542544;0.0020634516695558513;-0.11043933754613786;-0.085504107908688426];
  IW1_1 = [0.089274735282691725 -0.093355755417381031 0.037923971109944908 -0.035483119517900015 0.0065781280358736044 0.1565512763058281 -0.03306028398621258 0.15661906465268033 -0.087552580798275659 -0.0089805330774556606 0.075117579022912592 -0.038877534118903143;0.096558074893957249 -0.010656491002631382 -0.049514805903772913 -0.05700448948665162 0.0014438103442889947 0.19564655520651034 -0.083111657098772926 0.15766946703955878 -0.080089280228825166 0.0065879084408282575 0.10002596654035033 0.0051744240131842536;0.066142613744563816 0.093678700516329233 -0.14149999635742386 -0.069219444617392892 -0.0038722860003885138 0.17737379619924037 -0.11706134054631702 0.10971054502130471 -0.035593800868650875 0.031438746698943365 0.096034973447094663 0.043395247562626527;0.23564174452150335 0.030034464030244519 -0.10421777147664614 -0.19281933614933694 -0.060006584166074746 0.38158569917847085 -0.18580560793813486 0.29379581106672581 -0.18413174034922128 -0.015968808705307903 0.20482885302738851 0.091152067120961161;0.021570505388421202 0.15090804776675693 -0.17058351121629611 -0.066115106846878546 -0.0064639145264018738 0.092921364662483408 -0.10705463669913706 0.029738242104303186 0.0063188497233389778 0.042377627556779367 0.048048178886356104 0.055807885368931769;0.022418090048359769 0.1492668815844142 -0.16958490241788732 -0.065954610555749874 -0.0064066340802069275 0.094260031633403435 -0.10681417619337524 0.031285207171640399 0.0053986991992357857 0.042109947262948755 0.048978954035984901 0.055215929942160361;-0.072831532475042163 -0.080570759447861906 0.13166528438620415 0.068365700628075315 0.0033987780468922812 -0.18623997636754475 0.11516974169369318 -0.12025431461248351 0.043195810182351101 -0.028095582322428991 -0.10061743164455775 -0.040040215499361154;0.093941048027479934 0.011539713396046735 -0.07111795040539666 -0.060460859625871222 1.6785496615641947e-05 0.1991941020719831 -0.093097213259615202 0.15263624062295966 -0.073689173707114461 0.01132464423979051 0.10373343473059819 0.015396270069105713;-0.056731061312938529 -0.1088274673842258 0.15162074811049209 0.069590616034761354 0.0044085837449874266 -0.16233850215364626 0.11739348011768951 -0.094155527965398375 0.025840187561590258 -0.035156610458755608 -0.087885099607320938 -0.04668612254638297;0.093725001432988272 -0.075410340924651806 0.017845843598186677 -0.04242869089616421 0.005634446722837359 0.16976966548632924 -0.046425125485025483 0.16061529966528773 -0.088729334145642227 -0.0056776846597350787 0.082158275715411205 -0.029018340048228706];
  
  % Layer 2
  b2 = [-0.7615744994440623;-0.10393237867531462;-0.080110844831236178];
  LW2_1 = [0.14853879968024319 0.010668070104366621 -0.1701902232924066 -0.0025846803133793817 -0.26738668621585349 -0.2649218463041067 0.14724858636832569 -0.027425555836071324 0.19679898558404307 0.11939284783510248;0.13364673681892164 0.22934794302614245 0.26887633023126123 0.51083651796636143 0.2040338568762752 0.20459981337434108 -0.27151438691026575 0.24648699280072012 -0.26029088748322798 0.16027615354633887;-0.23906534372788299 -0.22761525349489459 -0.13565151131181052 -0.44439230651521155 -0.0082240538833132822 -0.010908333069938101 0.15414886059442628 -0.2163437108308956 0.10952408913090469 -0.24203209389939034];
  
  % Output 1
  y1_step1_ymin = -1;
  y1_step1_gain = [2;2;2];
  y1_step1_xoffset = [0;0;0];
  
  % ===== SIMULATION ========
  
  % Format Input Arguments
  isCellX = iscell(X);
  if ~isCellX, X = {X}; end;
  
  % Dimensions
  TS = size(X,2); % timesteps
  if ~isempty(X)
    Q = size(X{1},2); % samples/series
  else
    Q = 0;
  end
  
  % Allocate Outputs
  Y = cell(1,TS);
  
  % Time loop
  for ts=1:TS
  
    % Input 1
    Xp1 = mapminmax_apply(X{1,ts},x1_step1_gain,x1_step1_xoffset,x1_step1_ymin);
    
    % Layer 1
    a1 = tansig_apply(repmat(b1,1,Q) + IW1_1*Xp1);
    
    % Layer 2
    a2 = repmat(b2,1,Q) + LW2_1*a1;
    
    % Output 1
    Y{1,ts} = mapminmax_reverse(a2,y1_step1_gain,y1_step1_xoffset,y1_step1_ymin);
  end
  
  % Final Delay States
  Xf = cell(1,0);
  Af = cell(2,0);
  
  % Format Output Arguments
  if ~isCellX, Y = cell2mat(Y); end
end

% ===== MODULE FUNCTIONS ========

% Map Minimum and Maximum Input Processing Function
function y = mapminmax_apply(x,settings_gain,settings_xoffset,settings_ymin)
  y = bsxfun(@minus,x,settings_xoffset);
  y = bsxfun(@times,y,settings_gain);
  y = bsxfun(@plus,y,settings_ymin);
end

% Sigmoid Symmetric Transfer Function
function a = tansig_apply(n)
  a = 2 ./ (1 + exp(-2*n)) - 1;
end

% Map Minimum and Maximum Output Reverse-Processing Function
function x = mapminmax_reverse(y,settings_gain,settings_xoffset,settings_ymin)
  x = bsxfun(@minus,y,settings_ymin);
  x = bsxfun(@rdivide,x,settings_gain);
  x = bsxfun(@plus,x,settings_xoffset);
end
